{"fitness": 13.110675281018814, "fitness_no_discr": 18.926014119383286, "discriminator": 0.014418353326618671, "_step": 129, "_runtime": 7813, "_timestamp": 1610093993, "graph_2": {"_type": "graph-file", "path": "media/graph/graph_2_summary_d933c8b1.graph.json", "sha256": "d933c8b10ff126db5589176a08be00283864b8ea730632766af5b73ce6e4b42d", "size": 1177}, "graph_0": {"_type": "graph-file", "path": "media/graph/graph_2_summary_d933c8b1.graph.json", "sha256": "d933c8b10ff126db5589176a08be00283864b8ea730632766af5b73ce6e4b42d", "size": 1177}, "gradients/graph_2predict.bias": {"_type": "histogram", "values": [0.0, 0.0, 0.0, 0.0, 0.0, 0.0, 0.0, 0.0, 0.0, 0.0, 0.0, 0.0, 0.0, 0.0, 0.0, 0.0, 0.0, 0.0, 0.0, 0.0, 0.0, 0.0, 0.0, 0.0, 0.0, 0.0, 0.0, 0.0, 0.0, 0.0, 0.0, 0.0, 1.0, 0.0, 0.0, 0.0, 0.0, 0.0, 0.0, 0.0, 0.0, 0.0, 0.0, 0.0, 0.0, 0.0, 0.0, 0.0, 0.0, 0.0, 0.0, 0.0, 0.0, 0.0, 0.0, 0.0, 0.0, 0.0, 0.0, 0.0, 0.0, 0.0, 0.0, 0.0], "bins": [-0.0022669928148388863, -0.0022669928148388863, -0.0022669928148388863, -0.0022669928148388863, -0.0022669928148388863, -0.0022669928148388863, -0.0022669928148388863, -0.0022669928148388863, -0.0022669928148388863, -0.0022669928148388863, -0.0022669928148388863, -0.0022669928148388863, -0.0022669928148388863, -0.0022669928148388863, -0.0022669928148388863, -0.0022669928148388863, -0.0022669928148388863, -0.0022669928148388863, -0.0022669928148388863, -0.0022669928148388863, -0.0022669928148388863, -0.0022669928148388863, -0.0022669928148388863, -0.0022669928148388863, -0.0022669928148388863, -0.0022669928148388863, -0.0022669928148388863, -0.0022669928148388863, -0.0022669928148388863, -0.0022669928148388863, -0.0022669928148388863, -0.0022669928148388863, -0.0022669928148388863, -0.0022669928148388863, -0.0022669928148388863, -0.0022669928148388863, -0.0022669928148388863, -0.0022669928148388863, -0.0022669928148388863, -0.0022669928148388863, -0.0022669928148388863, -0.0022669928148388863, -0.0022669928148388863, -0.0022669928148388863, -0.0022669928148388863, -0.0022669928148388863, -0.0022669928148388863, -0.0022669928148388863, -0.0022669928148388863, -0.0022669928148388863, -0.0022669928148388863, -0.0022669928148388863, -0.0022669928148388863, -0.0022669928148388863, -0.0022669928148388863, -0.0022669928148388863, -0.0022669928148388863, -0.0022669928148388863, -0.0022669928148388863, -0.0022669928148388863, -0.0022669928148388863, -0.0022669928148388863, -0.0022669928148388863, -0.0022669928148388863, -0.0022669928148388863]}, "gradients/graph_2predict.weight": {"_type": "histogram", "values": [5.0, 0.0, 0.0, 0.0, 0.0, 0.0, 0.0, 0.0, 0.0, 0.0, 0.0, 0.0, 0.0, 0.0, 0.0, 0.0, 0.0, 0.0, 0.0, 0.0, 0.0, 0.0, 0.0, 0.0, 0.0, 0.0, 0.0, 0.0, 0.0, 0.0, 0.0, 0.0, 0.0, 0.0, 0.0, 0.0, 0.0, 0.0, 0.0, 0.0, 0.0, 0.0, 0.0, 0.0, 0.0, 0.0, 0.0, 0.0, 0.0, 0.0, 0.0, 0.0, 0.0, 0.0, 0.0, 0.0, 0.0, 0.0, 0.0, 0.0, 0.0, 0.0, 0.0, 5.0], "bins": [-0.012643195688724518, -0.012283461168408394, -0.01192372664809227, -0.011563992127776146, -0.011204257607460022, -0.010844522155821323, -0.0104847876355052, -0.010125053115189075, -0.009765318594872952, -0.009405584074556828, -0.009045849554240704, -0.008686114102602005, -0.008326379582285881, -0.007966645061969757, -0.007606910541653633, -0.007247176021337509, -0.006887441501021385, -0.006527706980705261, -0.006167972460389137, -0.005808237474411726, -0.005448502954095602, -0.005088768433779478, -0.004729033447802067, -0.004369298927485943, -0.004009564407169819, -0.003649829886853695, -0.003290095366537571, -0.002930360846221447, -0.0025706253945827484, -0.0022108908742666245, -0.0018511563539505005, -0.0014914218336343765, -0.0011316873133182526, -0.0007719527930021286, -0.00041221827268600464, -5.2483752369880676e-05, 0.0003072507679462433, 0.0006669862195849419, 0.0010267207399010658, 0.0013864552602171898, 0.0017461897805333138, 0.0021059243008494377, 0.0024656588211655617, 0.0028253933414816856, 0.003185128793120384, 0.003544863313436508, 0.003904597833752632, 0.004264332354068756, 0.00462406687438488, 0.004983801394701004, 0.005343535915017128, 0.005703270435333252, 0.006063004955649376, 0.0064227394759655, 0.006782473996281624, 0.007142208516597748, 0.007501944899559021, 0.007861679419875145, 0.008221413940191269, 0.008581148460507393, 0.008940882980823517, 0.00930061750113964, 0.009660352021455765, 0.010020086541771889, 0.010379821062088013]}, "gradients/graph_2hidden.3.bias": {"_type": "histogram", "values": [1.0, 1.0, 0.0, 0.0, 1.0, 0.0, 2.0, 0.0, 0.0, 0.0, 0.0, 0.0, 0.0, 0.0, 0.0, 0.0, 0.0, 0.0, 0.0, 0.0, 0.0, 0.0, 0.0, 0.0, 0.0, 0.0, 0.0, 0.0, 0.0, 0.0, 0.0, 0.0, 0.0, 0.0, 0.0, 0.0, 0.0, 0.0, 0.0, 0.0, 0.0, 0.0, 0.0, 0.0, 0.0, 0.0, 0.0, 0.0, 0.0, 0.0, 0.0, 0.0, 0.0, 0.0, 0.0, 0.0, 0.0, 0.0, 1.0, 0.0, 1.0, 1.0, 0.0, 2.0], "bins": [-0.0001362981420243159, -0.00013186279102228582, -0.00012742744002025574, -0.00012299208901822567, -0.0001185567380161956, -0.00011412138701416552, -0.00010968603601213545, -0.00010525068501010537, -0.0001008153340080753, -9.637998300604522e-05, -9.194463200401515e-05, -8.750928100198507e-05, -8.3073929999955e-05, -7.863857899792492e-05, -7.420322799589485e-05, -6.976787699386477e-05, -6.53325259918347e-05, -6.0897174989804626e-05, -5.646182398777455e-05, -5.2026472985744476e-05, -4.75911219837144e-05, -4.315577098168433e-05, -3.872041997965425e-05, -3.428506897762418e-05, -2.9849717975594103e-05, -2.541436697356403e-05, -2.0979015971533954e-05, -1.654366496950388e-05, -1.2108313967473805e-05, -7.67296296544373e-06, -3.2376119634136558e-06, 1.1977390386164188e-06, 5.6330900406464934e-06, 1.0068441042676568e-05, 1.4503792044706643e-05, 1.8939143046736717e-05, 2.3374494048766792e-05, 2.7809845050796866e-05, 3.224519605282694e-05, 3.6680547054857016e-05, 4.111589805688709e-05, 4.5551249058917165e-05, 4.998660006094724e-05, 5.4421951062977314e-05, 5.885730206500739e-05, 6.329265306703746e-05, 6.772800406906754e-05, 7.216335507109761e-05, 7.659870607312769e-05, 8.103405707515776e-05, 8.546940807718784e-05, 8.990475907921791e-05, 9.434011008124799e-05, 9.877546108327806e-05, 0.00010321081208530813, 0.00010764616308733821, 0.00011208151408936828, 0.00011651687964331359, 0.00012095221609342843, 0.00012538755254354328, 0.00012982291809748858, 0.00013425828365143389, 0.00013869362010154873, 0.00014312895655166358, 0.00014756432210560888]}, "gradients/graph_2hidden.3.weight": {"_type": "histogram", "values": [3.0, 17.0, 37.0, 36.0, 17.0, 9.0, 33.0, 22.0, 27.0, 73.0, 17.0, 5.0, 4.0, 0.0, 0.0, 0.0, 0.0, 0.0, 22.0, 104.0, 70.0, 4.0, 0.0, 0.0, 0.0, 0.0, 0.0, 0.0, 0.0, 0.0, 0.0, 0.0, 0.0, 0.0, 0.0, 0.0, 0.0, 0.0, 0.0, 0.0, 0.0, 23.0, 117.0, 53.0, 7.0, 0.0, 0.0, 0.0, 0.0, 0.0, 1.0, 1.0, 3.0, 8.0, 23.0, 32.0, 19.0, 38.0, 34.0, 36.0, 36.0, 47.0, 18.0, 4.0], "bins": [-0.00010099860810441896, -9.771288023330271e-05, -9.442715236218646e-05, -9.114142449107021e-05, -8.785568934399635e-05, -8.45699614728801e-05, -8.128423360176384e-05, -7.79985057306476e-05, -7.471277785953134e-05, -7.142704271245748e-05, -6.814132211729884e-05, -6.485558697022498e-05, -6.156985909910873e-05, -5.8284131227992475e-05, -5.4998403356876224e-05, -5.1712671847781166e-05, -4.8426943976664916e-05, -4.5141216105548665e-05, -4.185548459645361e-05, -3.8569756725337356e-05, -3.5284028854221106e-05, -3.1998300983104855e-05, -2.8712573111988604e-05, -2.542683796491474e-05, -2.214111009379849e-05, -1.8855382222682238e-05, -1.5569654351565987e-05, -1.2283926480449736e-05, -8.998198609333485e-06, -5.7124634622596204e-06, -2.4267355911433697e-06, 8.589922799728811e-07, 4.144720151089132e-06, 7.430448022205383e-06, 1.0716175893321633e-05, 1.4001903764437884e-05, 1.728763891151175e-05, 2.0573366782628e-05, 2.385909465374425e-05, 2.7144829800818115e-05, 3.0430550395976752e-05, 3.371628554305062e-05, 3.7002006138209254e-05, 4.028774128528312e-05, 4.3573461880441755e-05, 4.685919702751562e-05, 5.0144932174589485e-05, 5.343065276974812e-05, 5.6716387916821986e-05, 6.000210851198062e-05, 6.328784365905449e-05, 6.657356425421312e-05, 6.985929940128699e-05, 7.314503454836085e-05, 7.643075514351949e-05, 7.971649029059336e-05, 8.300221088575199e-05, 8.628794603282586e-05, 8.957368117989972e-05, 9.285940177505836e-05, 9.614513692213222e-05, 9.943085751729086e-05, 0.00010271659266436473, 0.00010600231325952336, 0.00010928804840659723]}, "gradients/graph_2hidden.2.bias": {"_type": "histogram", "values": [1.0, 1.0, 4.0, 9.0, 12.0, 4.0, 9.0, 3.0, 5.0, 2.0, 5.0, 0.0, 1.0, 0.0, 0.0, 1.0, 0.0, 1.0, 1.0, 0.0, 0.0, 1.0, 0.0, 0.0, 0.0, 0.0, 0.0, 0.0, 0.0, 0.0, 0.0, 0.0, 0.0, 0.0, 0.0, 0.0, 0.0, 0.0, 0.0, 0.0, 0.0, 0.0, 0.0, 0.0, 0.0, 0.0, 0.0, 0.0, 0.0, 0.0, 0.0, 0.0, 0.0, 1.0, 1.0, 3.0, 5.0, 9.0, 8.0, 6.0, 1.0, 2.0, 1.0, 3.0], "bins": [-6.6017011704389e-05, -6.372565258061513e-05, -6.143429345684126e-05, -5.9142937971046194e-05, -5.685157884727232e-05, -5.4560223361477256e-05, -5.226886423770338e-05, -4.997750511392951e-05, -4.768614599015564e-05, -4.539479050436057e-05, -4.31034313805867e-05, -4.081207589479163e-05, -3.852071677101776e-05, -3.622935764724389e-05, -3.3937998523470014e-05, -3.164664303767495e-05, -2.9355283913901076e-05, -2.7063924790127203e-05, -2.4772569304332137e-05, -2.2481210180558264e-05, -2.018985105678439e-05, -1.7898495570989326e-05, -1.5607136447215453e-05, -1.331577732344158e-05, -1.1024421837646514e-05, -8.733062713872641e-06, -6.4417035900987685e-06, -4.150344466324896e-06, -1.8589853425510228e-06, 4.323665052652359e-07, 2.7237256290391088e-06, 5.015084752812982e-06, 7.3064438765868545e-06, 9.597803000360727e-06, 1.18891621241346e-05, 1.4180521247908473e-05, 1.647187309572473e-05, 1.8763232219498605e-05, 2.1054591343272477e-05, 2.334595046704635e-05, 2.5637309590820223e-05, 2.7928668714594096e-05, 3.0220020562410355e-05, 3.251137968618423e-05, 3.48027388099581e-05, 3.709409793373197e-05, 3.9385457057505846e-05, 4.167681618127972e-05, 4.396816802909598e-05, 4.625952715286985e-05, 4.855088627664372e-05, 5.0842245400417596e-05, 5.313360452419147e-05, 5.542496364796534e-05, 5.7716322771739215e-05, 6.000768189551309e-05, 6.229904101928696e-05, 6.459040014306083e-05, 6.688174471491948e-05, 6.917310383869335e-05, 7.146446296246722e-05, 7.37558220862411e-05, 7.604718121001497e-05, 7.833854033378884e-05, 8.062989945756271e-05]}, "gradients/graph_2hidden.2.weight": {"_type": "histogram", "values": [14.0, 35.0, 83.0, 201.0, 295.0, 280.0, 237.0, 190.0, 149.0, 135.0, 85.0, 59.0, 61.0, 126.0, 228.0, 243.0, 193.0, 160.0, 102.0, 59.0, 38.0, 18.0, 21.0, 29.0, 4.0, 15.0, 0.0, 0.0, 0.0, 0.0, 0.0, 0.0, 0.0, 0.0, 0.0, 0.0, 0.0, 0.0, 0.0, 0.0, 0.0, 18.0, 47.0, 137.0, 188.0, 168.0, 106.0, 54.0, 43.0, 20.0, 14.0, 6.0, 31.0, 71.0, 130.0, 229.0, 236.0, 198.0, 136.0, 70.0, 47.0, 44.0, 28.0, 19.0], "bins": [-4.0172275475924835e-05, -3.876203845720738e-05, -3.7351805076468736e-05, -3.594156805775128e-05, -3.453133467701264e-05, -3.3121097658295184e-05, -3.171086427755654e-05, -3.0300627258839086e-05, -2.8890390240121633e-05, -2.7480156859382987e-05, -2.6069919840665534e-05, -2.4659684640937485e-05, -2.3249449441209435e-05, -2.1839214241481386e-05, -2.0428977222763933e-05, -1.9018742023035884e-05, -1.7608506823307835e-05, -1.6198271623579785e-05, -1.4788036423851736e-05, -1.3377799405134283e-05, -1.1967564205406234e-05, -1.0557329005678184e-05, -9.147093805950135e-06, -7.736856787232682e-06, -6.326623406494036e-06, -4.9163863877765834e-06, -3.5061530070379376e-06, -2.0959159883204848e-06, -6.856789696030319e-07, 7.245544111356139e-07, 2.134791429853067e-06, 3.5450248105917126e-06, 4.9552618293091655e-06, 6.365498848026618e-06, 7.775732228765264e-06, 9.185969247482717e-06, 1.0596202628221363e-05, 1.2006439646938816e-05, 1.3416676665656269e-05, 1.4826910046394914e-05, 1.6237147065112367e-05, 1.7647380445851013e-05, 1.9057617464568466e-05, 2.046785448328592e-05, 2.1878087864024565e-05, 2.328832124476321e-05, 2.469856190145947e-05, 2.6108795282198116e-05, 2.7519028662936762e-05, 2.8929269319633022e-05, 3.0339502700371668e-05, 3.1749736081110314e-05, 3.315996946184896e-05, 3.457021011854522e-05, 3.5980443499283865e-05, 3.739067688002251e-05, 3.880091753671877e-05, 4.021115091745742e-05, 4.162138429819606e-05, 4.303162495489232e-05, 4.444185833563097e-05, 4.5852091716369614e-05, 4.726232509710826e-05, 4.867256575380452e-05, 5.0082799134543166e-05]}, "gradients/graph_2hidden.1.bias": {"_type": "histogram", "values": [6.0, 5.0, 4.0, 4.0, 4.0, 2.0, 2.0, 2.0, 0.0, 1.0, 1.0, 0.0, 0.0, 0.0, 0.0, 0.0, 0.0, 0.0, 0.0, 0.0, 0.0, 0.0, 0.0, 0.0, 0.0, 0.0, 0.0, 0.0, 0.0, 0.0, 0.0, 0.0, 0.0, 0.0, 0.0, 0.0, 0.0, 0.0, 0.0, 0.0, 0.0, 1.0, 0.0, 0.0, 0.0, 0.0, 0.0, 0.0, 0.0, 0.0, 0.0, 0.0, 3.0, 1.0, 0.0, 0.0, 2.0, 3.0, 0.0, 1.0, 3.0, 1.0, 3.0, 2.0], "bins": [-0.00012869210331700742, -0.00012348782911431044, -0.00011828355491161346, -0.00011307927343295887, -0.00010787499923026189, -0.00010267072502756491, -9.746644354891032e-05, -9.226216934621334e-05, -8.705789514351636e-05, -8.185362094081938e-05, -7.66493467381224e-05, -7.144506525946781e-05, -6.624079105677083e-05, -6.103651685407385e-05, -5.583223537541926e-05, -5.062796117272228e-05, -4.54236869700253e-05, -4.021941276732832e-05, -3.501513856463134e-05, -2.981085708597675e-05, -2.460658288327977e-05, -1.940230868058279e-05, -1.4198027201928198e-05, -8.99375299923122e-06, -3.7894787965342402e-06, 1.4147954061627388e-06, 6.619069608859718e-06, 1.1823343811556697e-05, 1.7027632566168904e-05, 2.2231906768865883e-05, 2.7436180971562862e-05, 3.264045517425984e-05, 3.784472937695682e-05, 4.30490035796538e-05, 4.825327778235078e-05, 5.345755198504776e-05, 5.866182618774474e-05, 6.386611494235694e-05, 6.907038914505392e-05, 7.42746633477509e-05, 7.947893755044788e-05, 8.468321175314486e-05, 8.988748595584184e-05, 9.509176015853882e-05, 0.00010029604891315103, 0.000105500323115848, 0.00011070459731854498, 0.00011590885696932673, 0.00012111314572393894, 0.00012631743447855115, 0.0001315216941293329, 0.0001367259828839451, 0.00014193024253472686, 0.00014713453128933907, 0.00015233879094012082, 0.00015754307969473302, 0.00016274736844934523, 0.00016795162810012698, 0.0001731559168547392, 0.00017836017650552094, 0.00018356446526013315, 0.0001887687249109149, 0.0001939730136655271, 0.00019917727331630886, 0.00020438156207092106]}, "gradients/graph_2hidden.1.weight": {"_type": "histogram", "values": [36.0, 30.0, 23.0, 20.0, 28.0, 13.0, 14.0, 33.0, 47.0, 57.0, 74.0, 77.0, 109.0, 140.0, 142.0, 145.0, 89.0, 76.0, 62.0, 20.0, 5.0, 0.0, 0.0, 0.0, 512.0, 49.0, 0.0, 0.0, 0.0, 2.0, 2.0, 4.0, 13.0, 25.0, 23.0, 33.0, 22.0, 41.0, 50.0, 58.0, 54.0, 63.0, 50.0, 55.0, 29.0, 27.0, 27.0, 27.0, 21.0, 22.0, 16.0, 15.0, 23.0, 8.0, 0.0, 0.0, 16.0, 14.0, 0.0, 8.0, 21.0, 6.0, 13.0, 12.0], "bins": [-0.00012967409566044807, -0.00012442635488696396, -0.00011917862866539508, -0.00011393089516786858, -0.00010868316167034209, -0.00010343542817281559, -9.81876946752891e-05, -9.29399611777626e-05, -8.76922276802361e-05, -8.24444941827096e-05, -7.719676068518311e-05, -7.194902718765661e-05, -6.670129369013011e-05, -6.145356019260362e-05, -5.620582669507712e-05, -5.0958093197550625e-05, -4.571035970002413e-05, -4.046262620249763e-05, -3.5214892704971135e-05, -2.9967159207444638e-05, -2.471942570991814e-05, -1.9471692212391645e-05, -1.4223958714865148e-05, -8.976225217338651e-06, -3.7284917198121548e-06, 1.519249053671956e-06, 6.7669752752408385e-06, 1.2014701496809721e-05, 1.7262442270293832e-05, 2.2510183043777943e-05, 2.7757909265346825e-05, 3.300563548691571e-05, 3.825337626039982e-05, 4.350111703388393e-05, 4.874884325545281e-05, 5.3996569477021694e-05, 5.9244310250505805e-05, 6.449205102398992e-05, 6.97397772455588e-05, 7.498750346712768e-05, 8.023524424061179e-05, 8.54829850140959e-05, 9.073071123566478e-05, 9.597843745723367e-05, 0.00010122617823071778, 0.00010647391900420189, 0.00011172164522577077, 0.00011696937144733965, 0.00012221711222082376, 0.00012746485299430788, 0.000132712593767792, 0.00013796030543744564, 0.00014320804621092975, 0.00014845578698441386, 0.00015370349865406752, 0.00015895123942755163, 0.00016419898020103574, 0.00016944672097451985, 0.00017469446174800396, 0.00017994217341765761, 0.00018518991419114172, 0.00019043765496462584, 0.0001956853666342795, 0.0002009331074077636, 0.0002061808481812477]}, "gradients/graph_2hidden.0.bias": {"_type": "histogram", "values": [1.0, 4.0, 1.0, 0.0, 0.0, 0.0, 1.0, 1.0, 2.0, 4.0, 2.0, 2.0, 0.0, 0.0, 0.0, 1.0, 0.0, 0.0, 0.0, 1.0, 1.0, 0.0, 1.0, 0.0, 0.0, 0.0, 0.0, 0.0, 0.0, 0.0, 0.0, 0.0, 0.0, 0.0, 0.0, 2.0, 4.0, 5.0, 6.0, 0.0, 0.0, 0.0, 0.0, 0.0, 0.0, 0.0, 0.0, 0.0, 0.0, 0.0, 0.0, 0.0, 0.0, 1.0, 1.0, 1.0, 1.0, 0.0, 0.0, 3.0, 2.0, 0.0, 1.0, 2.0], "bins": [-0.0003270508605055511, -0.0003180773346684873, -0.000309103837935254, -0.00030013034120202065, -0.00029115681536495686, -0.00028218328952789307, -0.00027320979279465973, -0.0002642362960614264, -0.0002552627702243626, -0.0002462892443872988, -0.0002373157476540655, -0.00022834223636891693, -0.00021936872508376837, -0.0002103952137986198, -0.00020142170251347125, -0.00019244819122832268, -0.00018347467994317412, -0.00017450116865802556, -0.000165527657372877, -0.00015655414608772844, -0.00014758063480257988, -0.00013860712351743132, -0.00012963361223228276, -0.0001206601009471342, -0.00011168658966198564, -0.00010271307837683707, -9.373956709168851e-05, -8.476605580653995e-05, -7.579254452139139e-05, -6.68190186843276e-05, -5.784552195109427e-05, -4.887202521786094e-05, -3.989849938079715e-05, -3.092497354373336e-05, -2.1951476810500026e-05, -1.2977980077266693e-05, -4.004454240202904e-06, 4.969071596860886e-06, 1.3942568330094218e-05, 2.291606506332755e-05, 3.188959090039134e-05, 4.086311673745513e-05, 4.983661347068846e-05, 5.8810110203921795e-05, 6.778363604098558e-05, 7.675716187804937e-05, 8.57306586112827e-05, 9.470415534451604e-05, 0.00010367768118157983, 0.00011265120701864362, 0.00012162470375187695, 0.00013059820048511028, 0.00013957172632217407, 0.00014854525215923786, 0.0001575187488924712, 0.00016649224562570453, 0.00017546577146276832, 0.0001844392972998321, 0.0001934128231368959, 0.00020238629076629877, 0.00021135981660336256, 0.00022033334244042635, 0.00022930681006982923, 0.00023828033590689301, 0.0002472538617439568]}, "gradients/graph_2hidden.0.weight": {"_type": "histogram", "values": [1.0, 4.0, 1.0, 0.0, 0.0, 0.0, 1.0, 1.0, 2.0, 4.0, 3.0, 1.0, 0.0, 0.0, 0.0, 1.0, 0.0, 0.0, 1.0, 0.0, 1.0, 0.0, 1.0, 0.0, 0.0, 0.0, 0.0, 0.0, 0.0, 0.0, 0.0, 0.0, 0.0, 0.0, 1.0, 89.0, 2454.0, 13.0, 10.0, 0.0, 0.0, 0.0, 0.0, 0.0, 0.0, 0.0, 0.0, 0.0, 0.0, 0.0, 0.0, 0.0, 0.0, 1.0, 1.0, 1.0, 1.0, 0.0, 0.0, 3.0, 2.0, 0.0, 1.0, 2.0], "bins": [-0.03047473542392254, -0.029637474566698074, -0.02880021184682846, -0.027962949126958847, -0.027125688269734383, -0.026288427412509918, -0.025451164692640305, -0.02461390197277069, -0.023776641115546227, -0.022939380258321762, -0.02210211753845215, -0.021264854818582535, -0.02042759396135807, -0.019590333104133606, -0.018753070384263992, -0.01791580766439438, -0.017078546807169914, -0.01624128594994545, -0.015404023230075836, -0.014566762372851372, -0.013729499652981758, -0.012892236933112144, -0.01205497607588768, -0.011217715218663216, -0.010380452498793602, -0.009543189778923988, -0.008705928921699524, -0.00786866806447506, -0.007031405344605446, -0.006194142624735832, -0.005356881767511368, -0.004519620910286903, -0.0036823581904172897, -0.002845095470547676, -0.0020078346133232117, -0.0011705737560987473, -0.0003333110362291336, 0.00050395168364048, 0.0013412106782197952, 0.002178473398089409, 0.0030157361179590225, 0.003852998837828636, 0.00469026155769825, 0.005527520552277565, 0.006364783272147179, 0.007202045992016792, 0.008039304986596107, 0.008876567706465721, 0.009713830426335335, 0.010551093146204948, 0.011388355866074562, 0.012225614860653877, 0.013062877580523491, 0.013900140300393105, 0.01473739929497242, 0.015574662014842033, 0.016411924734711647, 0.01724918745458126, 0.018086450174450874, 0.01892370916903019, 0.019760971888899803, 0.020598234608769417, 0.021435493603348732, 0.022272756323218346, 0.02311001904308796]}}