{"fitness": 23.249947718943368, "fitness_no_discr": 33.21398019268206, "discriminator": 0.0010225314181298018, "_step": 500, "_runtime": 32451, "_timestamp": 1610118631, "graph_2": {"_type": "graph-file", "path": "media/graph/graph_2_summary_d933c8b1.graph.json", "sha256": "d933c8b10ff126db5589176a08be00283864b8ea730632766af5b73ce6e4b42d", "size": 1177}, "graph_0": {"_type": "graph-file", "path": "media/graph/graph_2_summary_d933c8b1.graph.json", "sha256": "d933c8b10ff126db5589176a08be00283864b8ea730632766af5b73ce6e4b42d", "size": 1177}, "gradients/graph_2predict.bias": {"_type": "histogram", "values": [0.0, 0.0, 0.0, 0.0, 0.0, 0.0, 0.0, 0.0, 0.0, 0.0, 0.0, 0.0, 0.0, 0.0, 0.0, 0.0, 0.0, 0.0, 0.0, 0.0, 0.0, 0.0, 0.0, 0.0, 0.0, 0.0, 0.0, 0.0, 0.0, 0.0, 0.0, 0.0, 1.0, 0.0, 0.0, 0.0, 0.0, 0.0, 0.0, 0.0, 0.0, 0.0, 0.0, 0.0, 0.0, 0.0, 0.0, 0.0, 0.0, 0.0, 0.0, 0.0, 0.0, 0.0, 0.0, 0.0, 0.0, 0.0, 0.0, 0.0, 0.0, 0.0, 0.0, 0.0], "bins": [-0.0007529486902058125, -0.0007529486902058125, -0.0007529486902058125, -0.0007529486902058125, -0.0007529486902058125, -0.0007529486902058125, -0.0007529486902058125, -0.0007529486902058125, -0.0007529486902058125, -0.0007529486902058125, -0.0007529486902058125, -0.0007529486902058125, -0.0007529486902058125, -0.0007529486902058125, -0.0007529486902058125, -0.0007529486902058125, -0.0007529486902058125, -0.0007529486902058125, -0.0007529486902058125, -0.0007529486902058125, -0.0007529486902058125, -0.0007529486902058125, -0.0007529486902058125, -0.0007529486902058125, -0.0007529486902058125, -0.0007529486902058125, -0.0007529486902058125, -0.0007529486902058125, -0.0007529486902058125, -0.0007529486902058125, -0.0007529486902058125, -0.0007529486902058125, -0.0007529486902058125, -0.0007529486902058125, -0.0007529486902058125, -0.0007529486902058125, -0.0007529486902058125, -0.0007529486902058125, -0.0007529486902058125, -0.0007529486902058125, -0.0007529486902058125, -0.0007529486902058125, -0.0007529486902058125, -0.0007529486902058125, -0.0007529486902058125, -0.0007529486902058125, -0.0007529486902058125, -0.0007529486902058125, -0.0007529486902058125, -0.0007529486902058125, -0.0007529486902058125, -0.0007529486902058125, -0.0007529486902058125, -0.0007529486902058125, -0.0007529486902058125, -0.0007529486902058125, -0.0007529486902058125, -0.0007529486902058125, -0.0007529486902058125, -0.0007529486902058125, -0.0007529486902058125, -0.0007529486902058125, -0.0007529486902058125, -0.0007529486902058125, -0.0007529486902058125]}, "gradients/graph_2predict.weight": {"_type": "histogram", "values": [5.0, 0.0, 0.0, 0.0, 0.0, 0.0, 0.0, 0.0, 0.0, 0.0, 0.0, 0.0, 0.0, 0.0, 0.0, 0.0, 0.0, 0.0, 0.0, 0.0, 0.0, 0.0, 0.0, 0.0, 0.0, 0.0, 0.0, 0.0, 0.0, 0.0, 0.0, 0.0, 0.0, 0.0, 0.0, 0.0, 0.0, 0.0, 0.0, 0.0, 0.0, 0.0, 0.0, 0.0, 0.0, 0.0, 0.0, 0.0, 0.0, 0.0, 0.0, 0.0, 0.0, 0.0, 0.0, 0.0, 0.0, 0.0, 0.0, 0.0, 0.0, 0.0, 0.0, 5.0], "bins": [-0.00116450572386384, -0.0011397618800401688, -0.0011150181526318192, -0.001090274308808148, -0.0010655304649844766, -0.001040786737576127, -0.0010160428937524557, -0.0009912990499287844, -0.0009665553225204349, -0.0009418114786967635, -0.0009170676930807531, -0.0008923239074647427, -0.0008675800636410713, -0.0008428362780250609, -0.0008180924924090505, -0.0007933486485853791, -0.0007686048629693687, -0.0007438610773533583, -0.0007191172335296869, -0.0006943734479136765, -0.0006696296622976661, -0.0006448858184739947, -0.0006201420328579843, -0.0005953982472419739, -0.0005706544034183025, -0.0005459106178022921, -0.0005211668321862817, -0.0004964230465702713, -0.0004716792027465999, -0.0004469354171305895, -0.00042219163151457906, -0.0003974477876909077, -0.0003727040020748973, -0.00034796021645888686, -0.0003232163726352155, -0.0002984725870192051, -0.00027372880140319467, -0.0002489849575795233, -0.0002242411719635129, -0.00019949738634750247, -0.00017475360073149204, -0.0001500097569078207, -0.00012526591308414936, -0.00010052218567579985, -7.57783418521285e-05, -5.1034498028457165e-05, -2.629077062010765e-05, -1.5469267964363098e-06, 2.319691702723503e-05, 4.7940644435584545e-05, 7.268448825925589e-05, 9.74282156676054e-05, 0.00012217205949127674, 0.00014691590331494808, 0.0001716596307232976, 0.00019640347454696894, 0.00022114731837064028, 0.0002458910457789898, 0.00027063488960266113, 0.0002953787334263325, 0.000320122460834682, 0.00034486630465835333, 0.00036961014848202467, 0.0003943538758903742, 0.0004190977197140455]}, "gradients/graph_2hidden.3.bias": {"_type": "histogram", "values": [2.0, 1.0, 2.0, 0.0, 0.0, 0.0, 0.0, 0.0, 0.0, 0.0, 0.0, 0.0, 0.0, 0.0, 0.0, 0.0, 0.0, 0.0, 0.0, 0.0, 0.0, 0.0, 0.0, 0.0, 0.0, 0.0, 0.0, 0.0, 0.0, 0.0, 0.0, 0.0, 0.0, 0.0, 0.0, 0.0, 0.0, 0.0, 0.0, 0.0, 0.0, 0.0, 0.0, 0.0, 0.0, 0.0, 0.0, 0.0, 0.0, 0.0, 0.0, 0.0, 0.0, 0.0, 0.0, 0.0, 0.0, 0.0, 0.0, 0.0, 0.0, 0.0, 2.0, 3.0], "bins": [-0.00013803874026052654, -0.00013358367141336203, -0.00012912858801428229, -0.00012467351916711777, -0.00012021843576803803, -0.00011576336692087352, -0.0001113082907977514, -0.00010685321467462927, -0.00010239813855150715, -9.794306242838502e-05, -9.34879863052629e-05, -8.903291018214077e-05, -8.457784133497626e-05, -8.012275793589652e-05, -7.5667689088732e-05, -7.121261296560988e-05, -6.675753684248775e-05, -6.230246071936563e-05, -5.78473845962435e-05, -5.3392308473121375e-05, -4.893723234999925e-05, -4.448216350283474e-05, -4.002708737971261e-05, -3.5572011256590486e-05, -3.111693513346836e-05, -2.6661859010346234e-05, -2.2206782887224108e-05, -1.7751706764101982e-05, -1.329663791693747e-05, -8.84155451785773e-06, -4.386485670693219e-06, 6.859772838652134e-08, 4.523666575551033e-06, 8.978735422715545e-06, 1.3433818821795285e-05, 1.7888887668959796e-05, 2.2343971068039536e-05, 2.6799039915204048e-05, 3.125412331428379e-05, 3.57091921614483e-05, 4.016427556052804e-05, 4.461934440769255e-05, 4.907441325485706e-05, 5.35294966539368e-05, 5.7984565501101315e-05, 6.243964890018106e-05, 6.689471774734557e-05, 7.134980114642531e-05, 7.580486999358982e-05, 8.025993884075433e-05, 8.471502223983407e-05, 8.917009108699858e-05, 9.362517448607832e-05, 9.808024333324283e-05, 0.00010253532673232257, 0.00010699039557948709, 0.0001114454644266516, 0.00011590053327381611, 0.00012035563122481108, 0.0001248107000719756, 0.0001292657689191401, 0.0001337208377663046, 0.00013817593571729958, 0.0001426310045644641, 0.0001470860734116286]}, "gradients/graph_2hidden.3.weight": {"_type": "histogram", "values": [39.0, 70.0, 77.0, 77.0, 20.0, 6.0, 3.0, 3.0, 0.0, 2.0, 3.0, 0.0, 0.0, 0.0, 0.0, 0.0, 0.0, 54.0, 67.0, 79.0, 0.0, 0.0, 0.0, 0.0, 0.0, 0.0, 0.0, 0.0, 0.0, 0.0, 0.0, 0.0, 0.0, 0.0, 0.0, 0.0, 0.0, 0.0, 0.0, 0.0, 0.0, 0.0, 0.0, 5.0, 93.0, 102.0, 0.0, 0.0, 0.0, 0.0, 0.0, 0.0, 0.0, 2.0, 3.0, 0.0, 1.0, 4.0, 6.0, 3.0, 29.0, 88.0, 120.0, 44.0], "bins": [-9.375748049933463e-05, -9.074158151634037e-05, -8.772568253334612e-05, -8.470978355035186e-05, -8.16938845673576e-05, -7.867799286032096e-05, -7.56620938773267e-05, -7.264619489433244e-05, -6.963029591133818e-05, -6.661439692834392e-05, -6.359849794534966e-05, -6.058260260033421e-05, -5.7566703617339954e-05, -5.4550804634345695e-05, -5.1534909289330244e-05, -4.8519010306335986e-05, -4.550311132334173e-05, -4.248721234034747e-05, -3.947131335735321e-05, -3.645541801233776e-05, -3.34395190293435e-05, -3.042362368432805e-05, -2.740772470133379e-05, -2.4391825718339533e-05, -2.1375926735345274e-05, -1.8360027752351016e-05, -1.5344128769356757e-05, -1.2328229786362499e-05, -9.312338079325855e-06, -6.296439096331596e-06, -3.280540113337338e-06, -2.6464113034307957e-07, 2.751257852651179e-06, 5.767156835645437e-06, 8.783055818639696e-06, 1.1798954801633954e-05, 1.4814853784628212e-05, 1.7830745491664857e-05, 2.0846644474659115e-05, 2.3862543457653373e-05, 2.6878442440647632e-05, 2.9894334147684276e-05, 3.2910233130678535e-05, 3.592613211367279e-05, 3.894203109666705e-05, 4.195793007966131e-05, 4.497382906265557e-05, 4.7989728045649827e-05, 5.1005627028644085e-05, 5.402152601163834e-05, 5.70374249946326e-05, 6.005332397762686e-05, 6.306922296062112e-05, 6.608512194361538e-05, 6.910102092660964e-05, 7.21169199096039e-05, 7.513280434068292e-05, 7.814870332367718e-05, 8.116460230667144e-05, 8.41805012896657e-05, 8.719640027265996e-05, 9.021229925565422e-05, 9.322819823864847e-05, 9.624409722164273e-05, 9.925999620463699e-05]}, "gradients/graph_2hidden.2.bias": {"_type": "histogram", "values": [2.0, 4.0, 10.0, 14.0, 9.0, 7.0, 4.0, 5.0, 0.0, 1.0, 0.0, 1.0, 0.0, 0.0, 0.0, 1.0, 0.0, 1.0, 0.0, 0.0, 0.0, 0.0, 0.0, 0.0, 0.0, 0.0, 0.0, 1.0, 0.0, 0.0, 0.0, 0.0, 0.0, 0.0, 0.0, 0.0, 0.0, 0.0, 0.0, 0.0, 0.0, 0.0, 0.0, 0.0, 0.0, 0.0, 0.0, 0.0, 0.0, 0.0, 0.0, 0.0, 0.0, 0.0, 0.0, 0.0, 0.0, 0.0, 0.0, 1.0, 11.0, 17.0, 7.0, 4.0], "bins": [-5.186053749639541e-05, -5.0005080993287265e-05, -4.814962449017912e-05, -4.629416798707098e-05, -4.4438711483962834e-05, -4.258325498085469e-05, -4.0727798477746546e-05, -3.88723419746384e-05, -3.701688547153026e-05, -3.5161428968422115e-05, -3.330597246531397e-05, -3.145051596220583e-05, -2.9595061278087087e-05, -2.7739604774978943e-05, -2.58841482718708e-05, -2.4028691768762656e-05, -2.2173235265654512e-05, -2.031778058153577e-05, -1.8462324078427628e-05, -1.6606867575319484e-05, -1.475141107221134e-05, -1.2895954569103196e-05, -1.1040498065995052e-05, -9.185041562886909e-06, -7.329585059778765e-06, -5.474128556670621e-06, -3.6186720535624772e-06, -1.7632155504543334e-06, 9.224095265381038e-08, 1.947697455761954e-06, 3.803153958870098e-06, 5.658610461978242e-06, 7.514066965086386e-06, 9.369519830215722e-06, 1.1224976333323866e-05, 1.308043283643201e-05, 1.4935889339540154e-05, 1.6791345842648298e-05, 1.864680234575644e-05, 2.0502258848864585e-05, 2.235771535197273e-05, 2.4213171855080873e-05, 2.6068628358189017e-05, 2.792408486129716e-05, 2.9779541364405304e-05, 3.163499786751345e-05, 3.349045437062159e-05, 3.5345910873729736e-05, 3.720136737683788e-05, 3.905682387994602e-05, 4.091228038305417e-05, 4.276773688616231e-05, 4.4623193389270455e-05, 4.64786498923786e-05, 4.833410639548674e-05, 5.0189562898594886e-05, 5.204501940170303e-05, 5.3900475904811174e-05, 5.575593240791932e-05, 5.761138891102746e-05, 5.9466845414135605e-05, 6.132230191724375e-05, 6.317775842035189e-05, 6.503321492346004e-05, 6.688867142656818e-05]}, "gradients/graph_2hidden.2.weight": {"_type": "histogram", "values": [39.0, 102.0, 246.0, 392.0, 332.0, 246.0, 146.0, 184.0, 18.0, 29.0, 2.0, 17.0, 14.0, 0.0, 0.0, 17.0, 14.0, 29.0, 9.0, 197.0, 620.0, 277.0, 24.0, 15.0, 40.0, 0.0, 0.0, 51.0, 0.0, 0.0, 0.0, 0.0, 0.0, 0.0, 0.0, 0.0, 0.0, 12.0, 615.0, 168.0, 5.0, 0.0, 0.0, 0.0, 0.0, 0.0, 0.0, 0.0, 0.0, 0.0, 0.0, 0.0, 0.0, 0.0, 0.0, 0.0, 0.0, 2.0, 32.0, 148.0, 469.0, 387.0, 158.0, 44.0], "bins": [-3.651796578196809e-05, -3.52147726516705e-05, -3.3911579521372914e-05, -3.260838275309652e-05, -3.1305189622798935e-05, -3.0001996492501348e-05, -2.8698803362203762e-05, -2.7395608412916772e-05, -2.6092413463629782e-05, -2.4789220333332196e-05, -2.348602720303461e-05, -2.218283225374762e-05, -2.0879639123450033e-05, -1.9576444174163043e-05, -1.8273251043865457e-05, -1.6970056094578467e-05, -1.566686296428088e-05, -1.4363669833983295e-05, -1.3060474884696305e-05, -1.1757281754398718e-05, -1.0454086805111729e-05, -9.150893674814142e-06, -7.847698725527152e-06, -6.544505595229566e-06, -5.24131246493198e-06, -3.9381193346343935e-06, -2.634922566358e-06, -1.3317294360604137e-06, -2.8536305762827396e-08, 1.274656824534759e-06, 2.5778535928111523e-06, 3.881046723108739e-06, 5.184239853406325e-06, 6.487432983703911e-06, 7.790626114001498e-06, 9.093822882277891e-06, 1.0397016012575477e-05, 1.1700209142873064e-05, 1.300340227317065e-05, 1.4306599041447043e-05, 1.560979217174463e-05, 1.6912985302042216e-05, 1.8216178432339802e-05, 1.951937156263739e-05, 2.0822568330913782e-05, 2.212576146121137e-05, 2.3428954591508955e-05, 2.4732151359785348e-05, 2.6035340852104127e-05, 2.733853762038052e-05, 2.86417271126993e-05, 2.9944923880975693e-05, 3.124812064925209e-05, 3.2551310141570866e-05, 3.385450690984726e-05, 3.515770367812365e-05, 3.646089317044243e-05, 3.7764089938718826e-05, 3.9067279431037605e-05, 4.0370476199314e-05, 4.167367296759039e-05, 4.297686245990917e-05, 4.4280059228185564e-05, 4.5583248720504344e-05, 4.688644548878074e-05]}, "gradients/graph_2hidden.1.bias": {"_type": "histogram", "values": [13.0, 10.0, 3.0, 3.0, 0.0, 2.0, 0.0, 0.0, 0.0, 0.0, 0.0, 0.0, 0.0, 0.0, 0.0, 0.0, 0.0, 0.0, 0.0, 0.0, 0.0, 0.0, 0.0, 0.0, 0.0, 0.0, 0.0, 0.0, 0.0, 0.0, 0.0, 0.0, 0.0, 0.0, 0.0, 0.0, 0.0, 0.0, 0.0, 0.0, 0.0, 0.0, 0.0, 0.0, 0.0, 0.0, 0.0, 0.0, 0.0, 0.0, 0.0, 0.0, 0.0, 0.0, 0.0, 0.0, 0.0, 0.0, 0.0, 0.0, 1.0, 0.0, 5.0, 14.0], "bins": [-6.471407687058672e-05, -6.225426477612928e-05, -5.979444904369302e-05, -5.7334636949235573e-05, -5.487482121679932e-05, -5.241500912234187e-05, -4.9955197027884424e-05, -4.7495384933426976e-05, -4.503556920099072e-05, -4.257575346855447e-05, -4.011594137409702e-05, -3.765612927963957e-05, -3.5196317185182124e-05, -3.273650145274587e-05, -3.0276689358288422e-05, -2.7816873625852168e-05, -2.535706153139472e-05, -2.2897249436937273e-05, -2.0437433704501018e-05, -1.797762161004357e-05, -1.5517805877607316e-05, -1.3057993783149868e-05, -1.059818168869242e-05, -8.138365956256166e-06, -5.6785538617987186e-06, -3.218738129362464e-06, -7.589260349050164e-07, 1.7008860595524311e-06, 4.160698154009879e-06, 6.620510248467326e-06, 9.080329618882388e-06, 1.1540141713339835e-05, 1.3999953807797283e-05, 1.645976590225473e-05, 1.8919577996712178e-05, 2.137939736712724e-05, 2.3839209461584687e-05, 2.6299021556042135e-05, 2.8758833650499582e-05, 3.121864574495703e-05, 3.367846511537209e-05, 3.613827720982954e-05, 3.8598089304286987e-05, 4.1057901398744434e-05, 4.351771349320188e-05, 4.597752558765933e-05, 4.843734495807439e-05, 5.089715705253184e-05, 5.3356969146989286e-05, 5.5816781241446733e-05, 5.8276600611861795e-05, 6.073641270631924e-05, 6.319622480077669e-05, 6.565603689523414e-05, 6.811584898969159e-05, 7.057566108414903e-05, 7.303547317860648e-05, 7.549528527306393e-05, 7.795509736752138e-05, 8.041492401389405e-05, 8.28747361083515e-05, 8.533454820280895e-05, 8.77943602972664e-05, 9.025417239172384e-05, 9.271398448618129e-05]}, "gradients/graph_2hidden.1.weight": {"_type": "histogram", "values": [70.0, 52.0, 28.0, 23.0, 26.0, 149.0, 194.0, 129.0, 73.0, 68.0, 40.0, 11.0, 4.0, 1.0, 0.0, 0.0, 0.0, 0.0, 0.0, 0.0, 18.0, 212.0, 136.0, 6.0, 2.0, 218.0, 341.0, 0.0, 0.0, 0.0, 0.0, 3.0, 87.0, 121.0, 29.0, 0.0, 0.0, 0.0, 0.0, 0.0, 0.0, 0.0, 0.0, 0.0, 0.0, 0.0, 0.0, 0.0, 2.0, 21.0, 22.0, 17.0, 22.0, 55.0, 102.0, 127.0, 60.0, 12.0, 0.0, 0.0, 6.0, 7.0, 49.0, 58.0], "bins": [-6.512315303552896e-05, -6.264226249186322e-05, -6.0161371948197484e-05, -5.768048140453175e-05, -5.519959086086601e-05, -5.271870031720027e-05, -5.0237809773534536e-05, -4.77569192298688e-05, -4.527602868620306e-05, -4.2795138142537326e-05, -4.031424759887159e-05, -3.783335705520585e-05, -3.535246287356131e-05, -3.287157232989557e-05, -3.0390681786229834e-05, -2.7909791242564097e-05, -2.542890069889836e-05, -2.2948010155232623e-05, -2.0467119611566886e-05, -1.798622906790115e-05, -1.5505338524235412e-05, -1.3024447980569676e-05, -1.0543557436903939e-05, -8.062666893238202e-06, -5.581772711593658e-06, -3.100882167927921e-06, -6.199916242621839e-07, 1.860898919403553e-06, 4.34178946306929e-06, 6.822680006735027e-06, 9.303570550400764e-06, 1.17844610940665e-05, 1.4265351637732238e-05, 1.6746242181397974e-05, 1.922713272506371e-05, 2.170802326872945e-05, 2.4188913812395185e-05, 2.6669804356060922e-05, 2.915069489972666e-05, 3.1631585443392396e-05, 3.411247598705813e-05, 3.659336653072387e-05, 3.907425707438961e-05, 4.1555147618055344e-05, 4.403603816172108e-05, 4.651692870538682e-05, 4.8997819249052554e-05, 5.147870979271829e-05, 5.395960761234164e-05, 5.644049815600738e-05, 5.8921388699673116e-05, 6.140227196738124e-05, 6.388316978700459e-05, 6.636405305471271e-05, 6.884495087433606e-05, 7.132583414204419e-05, 7.380673196166754e-05, 7.628761522937566e-05, 7.876851304899901e-05, 8.124939631670713e-05, 8.373029413633049e-05, 8.621117740403861e-05, 8.869207522366196e-05, 9.117295849137008e-05, 9.365385631099343e-05]}, "gradients/graph_2hidden.0.bias": {"_type": "histogram", "values": [1.0, 2.0, 3.0, 3.0, 7.0, 1.0, 1.0, 1.0, 0.0, 0.0, 0.0, 1.0, 1.0, 1.0, 0.0, 0.0, 0.0, 0.0, 0.0, 0.0, 0.0, 0.0, 0.0, 0.0, 0.0, 1.0, 4.0, 12.0, 0.0, 0.0, 0.0, 0.0, 0.0, 0.0, 0.0, 0.0, 0.0, 0.0, 0.0, 0.0, 0.0, 0.0, 0.0, 0.0, 0.0, 0.0, 0.0, 0.0, 0.0, 0.0, 0.0, 0.0, 0.0, 0.0, 0.0, 0.0, 0.0, 0.0, 0.0, 0.0, 0.0, 1.0, 5.0, 6.0], "bins": [-6.177670729812235e-05, -5.956520180916414e-05, -5.735369268222712e-05, -5.514218719326891e-05, -5.293067806633189e-05, -5.0719172577373683e-05, -4.8507667088415474e-05, -4.6296161599457264e-05, -4.408465247252025e-05, -4.187314334558323e-05, -3.966163785662502e-05, -3.745013236766681e-05, -3.52386268787086e-05, -3.3027117751771584e-05, -3.0815612262813374e-05, -2.8604103135876358e-05, -2.6392597646918148e-05, -2.4181092157959938e-05, -2.196958303102292e-05, -1.975807754206471e-05, -1.7546568415127695e-05, -1.5335062926169485e-05, -1.3123557437211275e-05, -1.0912048310274258e-05, -8.700542821316049e-06, -6.489037332357839e-06, -4.277528205420822e-06, -2.066022716462612e-06, 1.454827724955976e-07, 2.3569882614538074e-06, 4.568501026369631e-06, 6.780006515327841e-06, 8.99151200428605e-06, 1.120301749324426e-05, 1.341452298220247e-05, 1.5626035747118294e-05, 1.7837541236076504e-05, 2.0049046725034714e-05, 2.2260552213992923e-05, 2.4472057702951133e-05, 2.6683570467866957e-05, 2.8895075956825167e-05, 3.110658144578338e-05, 3.3318086934741586e-05, 3.5529592423699796e-05, 3.7741097912658006e-05, 3.995261067757383e-05, 4.216411616653204e-05, 4.437562165549025e-05, 4.658712714444846e-05, 4.879863263340667e-05, 5.101014539832249e-05, 5.32216508872807e-05, 5.543315637623891e-05, 5.764466186519712e-05, 5.985616735415533e-05, 6.206767284311354e-05, 6.427918560802937e-05, 6.649068382102996e-05, 6.870219658594579e-05, 7.091370935086161e-05, 7.31252075638622e-05, 7.533672032877803e-05, 7.754821854177862e-05, 7.975973130669445e-05]}, "gradients/graph_2hidden.0.weight": {"_type": "histogram", "values": [1.0, 2.0, 3.0, 3.0, 7.0, 1.0, 1.0, 1.0, 0.0, 0.0, 0.0, 1.0, 1.0, 1.0, 0.0, 0.0, 0.0, 0.0, 0.0, 0.0, 0.0, 0.0, 0.0, 0.0, 0.0, 0.0, 18.0, 273.0, 2232.0, 42.0, 2.0, 0.0, 0.0, 0.0, 0.0, 0.0, 0.0, 0.0, 0.0, 0.0, 0.0, 0.0, 0.0, 0.0, 0.0, 0.0, 0.0, 0.0, 0.0, 0.0, 0.0, 0.0, 0.0, 0.0, 0.0, 0.0, 0.0, 0.0, 0.0, 0.0, 0.0, 1.0, 6.0, 5.0], "bins": [-0.006283286027610302, -0.006059764418751001, -0.005836242809891701, -0.0056127216666936874, -0.005389200057834387, -0.005165678448975086, -0.004942156840115786, -0.004718635231256485, -0.004495114088058472, -0.004271592479199171, -0.0040480708703398705, -0.0038245494943112135, -0.003601027885451913, -0.003377506509423256, -0.0031539849005639553, -0.0029304635245352983, -0.0027069419156759977, -0.002483420306816697, -0.00225989893078804, -0.0020363773219287395, -0.001812855713069439, -0.0015893345698714256, -0.001365812961012125, -0.0011422913521528244, -0.0009187697432935238, -0.0006952481344342232, -0.00047172699123620987, -0.00024820538237690926, -2.4683773517608643e-05, 0.00019883783534169197, 0.0004223589785397053, 0.0006458805873990059, 0.0008694021962583065, 0.0010929238051176071, 0.0013164454139769077, 0.0015399670228362083, 0.0017634881660342216, 0.001987009309232235, 0.002210531383752823, 0.002434052526950836, 0.002657574601471424, 0.0028810957446694374, 0.0031046168878674507, 0.0033281389623880386, 0.003551660105586052, 0.00377518218010664, 0.003998703323304653, 0.0042222244665026665, 0.004445746541023254, 0.004669267684221268, 0.004892789758741856, 0.005116310901939869, 0.005339832045137882, 0.00556335411965847, 0.0057868752628564835, 0.006010396406054497, 0.006233918480575085, 0.006457439623773098, 0.006680961698293686, 0.006904482841491699, 0.0071280039846897125, 0.0073515260592103004, 0.007575047202408314, 0.007798569276928902, 0.008022090420126915]}, "Table of best SMILES": {"_type": "table-file", "path": "media/table/Table of best SMILES_500_610ba6cf.table.json", "sha256": "610ba6cff40a15f91d9c2813e0545e95c0d6b273a0509857df0635cd02cb2100", "size": 417587, "ncols": 6, "nrows": 500}}